digraph Tree {
node [shape=box, style="filled, rounded", color="black", fontname=helvetica] ;
edge [fontname=helvetica] ;
0 [label="MCARI_OSAVI <= 0.186\nmse = 0.235\nsamples = 53\nvalue = 2.903", fillcolor="#e5813975"] ;
1 [label="TCARI_OSAVI_RE <= 1.562\nmse = 0.111\nsamples = 43\nvalue = 2.716", fillcolor="#e581395e"] ;
0 -> 1 [labeldistance=2.5, labelangle=45, headlabel="True"] ;
2 [label="CIred_edge <= 0.867\nmse = 0.018\nsamples = 5\nvalue = 3.087", fillcolor="#e581398b"] ;
1 -> 2 ;
3 [label="RVI <= 11.567\nmse = 0.008\nsamples = 3\nvalue = 3.014", fillcolor="#e5813982"] ;
2 -> 3 ;
4 [label="mse = 0.0\nsamples = 1\nvalue = 2.87", fillcolor="#e5813971"] ;
3 -> 4 ;
5 [label="CI_green <= 5.211\nmse = 0.0\nsamples = 2\nvalue = 3.072", fillcolor="#e5813989"] ;
3 -> 5 ;
6 [label="mse = 0.0\nsamples = 1\nvalue = 3.07", fillcolor="#e5813989"] ;
5 -> 6 ;
7 [label="mse = -0.0\nsamples = 1\nvalue = 3.08", fillcolor="#e581398a"] ;
5 -> 7 ;
8 [label="CIred_edge <= 0.891\nmse = 0.0\nsamples = 2\nvalue = 3.257", fillcolor="#e58139a0"] ;
2 -> 8 ;
9 [label="mse = 0.0\nsamples = 1\nvalue = 3.26", fillcolor="#e58139a0"] ;
8 -> 9 ;
10 [label="mse = 0.0\nsamples = 1\nvalue = 3.25", fillcolor="#e581399f"] ;
8 -> 10 ;
11 [label="TCARI_OSAVI_RE <= 7.27\nmse = 0.098\nsamples = 38\nvalue = 2.648", fillcolor="#e5813956"] ;
1 -> 11 ;
12 [label="TCARI_OSAVI <= 1.505\nmse = 0.064\nsamples = 33\nvalue = 2.566", fillcolor="#e581394c"] ;
11 -> 12 ;
13 [label="CCCI_simpl <= 0.665\nmse = 0.045\nsamples = 29\nvalue = 2.619", fillcolor="#e5813952"] ;
12 -> 13 ;
14 [label="NDRE <= 0.277\nmse = 0.031\nsamples = 7\nvalue = 2.813", fillcolor="#e581396a"] ;
13 -> 14 ;
15 [label="CIred_edge <= 0.64\nmse = 0.017\nsamples = 6\nvalue = 2.854", fillcolor="#e581396f"] ;
14 -> 15 ;
16 [label="MTCI <= 0.595\nmse = 0.003\nsamples = 4\nvalue = 2.767", fillcolor="#e5813964"] ;
15 -> 16 ;
17 [label="mse = 0.0\nsamples = 1\nvalue = 2.66", fillcolor="#e5813957"] ;
16 -> 17 ;
18 [label="TCARI_OSAVI_RE <= 2.267\nmse = 0.001\nsamples = 3\nvalue = 2.788", fillcolor="#e5813967"] ;
16 -> 18 ;
19 [label="mse = 0.0\nsamples = 1\nvalue = 2.76", fillcolor="#e5813964"] ;
18 -> 19 ;
20 [label="MCARI_OSAVI_RE <= 0.312\nmse = 0.0\nsamples = 2\nvalue = 2.807", fillcolor="#e5813969"] ;
18 -> 20 ;
21 [label="mse = 0.0\nsamples = 1\nvalue = 2.81", fillcolor="#e581396a"] ;
20 -> 21 ;
22 [label="mse = 0.0\nsamples = 1\nvalue = 2.8", fillcolor="#e5813968"] ;
20 -> 22 ;
23 [label="NDVI <= 0.689\nmse = 0.001\nsamples = 2\nvalue = 3.03", fillcolor="#e5813984"] ;
15 -> 23 ;
24 [label="mse = 0.0\nsamples = 1\nvalue = 3.07", fillcolor="#e5813989"] ;
23 -> 24 ;
25 [label="mse = 0.0\nsamples = 1\nvalue = 3.01", fillcolor="#e5813982"] ;
23 -> 25 ;
26 [label="mse = 0.0\nsamples = 1\nvalue = 2.44", fillcolor="#e581393d"] ;
14 -> 26 ;
27 [label="NDVI <= 0.896\nmse = 0.033\nsamples = 22\nvalue = 2.556", fillcolor="#e581394b"] ;
13 -> 27 ;
28 [label="MTCI <= 0.616\nmse = 0.023\nsamples = 21\nvalue = 2.576", fillcolor="#e581394d"] ;
27 -> 28 ;
29 [label="CIred_edge <= 0.478\nmse = 0.006\nsamples = 2\nvalue = 2.26", fillcolor="#e5813927"] ;
28 -> 29 ;
30 [label="mse = 0.0\nsamples = 1\nvalue = 2.18", fillcolor="#e581391d"] ;
29 -> 30 ;
31 [label="mse = 0.0\nsamples = 1\nvalue = 2.34", fillcolor="#e5813931"] ;
29 -> 31 ;
32 [label="CCCI_simpl <= 0.87\nmse = 0.016\nsamples = 19\nvalue = 2.598", fillcolor="#e5813950"] ;
28 -> 32 ;
33 [label="CCCI_simpl <= 0.779\nmse = 0.013\nsamples = 15\nvalue = 2.63", fillcolor="#e5813954"] ;
32 -> 33 ;
34 [label="MCARI_OSAVI <= 0.023\nmse = 0.009\nsamples = 8\nvalue = 2.556", fillcolor="#e581394b"] ;
33 -> 34 ;
35 [label="MTCI <= 0.871\nmse = 0.003\nsamples = 2\nvalue = 2.45", fillcolor="#e581393e"] ;
34 -> 35 ;
36 [label="mse = 0.0\nsamples = 1\nvalue = 2.37", fillcolor="#e5813934"] ;
35 -> 36 ;
37 [label="mse = 0.0\nsamples = 1\nvalue = 2.49", fillcolor="#e5813943"] ;
35 -> 37 ;
38 [label="NDRE <= 0.201\nmse = 0.004\nsamples = 6\nvalue = 2.601", fillcolor="#e5813950"] ;
34 -> 38 ;
39 [label="CI_green <= 3.336\nmse = 0.0\nsamples = 3\nvalue = 2.53", fillcolor="#e5813948"] ;
38 -> 39 ;
40 [label="mse = 0.0\nsamples = 1\nvalue = 2.55", fillcolor="#e581394a"] ;
39 -> 40 ;
41 [label="MCARI_OSAVI_RE <= 0.229\nmse = 0.0\nsamples = 2\nvalue = 2.52", fillcolor="#e5813946"] ;
39 -> 41 ;
42 [label="mse = 0.0\nsamples = 1\nvalue = 2.53", fillcolor="#e5813948"] ;
41 -> 42 ;
43 [label="mse = 0.0\nsamples = 1\nvalue = 2.51", fillcolor="#e5813945"] ;
41 -> 43 ;
44 [label="CCCI_simpl <= 0.756\nmse = 0.001\nsamples = 3\nvalue = 2.655", fillcolor="#e5813957"] ;
38 -> 44 ;
45 [label="CI_green <= 7.663\nmse = 0.0\nsamples = 2\nvalue = 2.68", fillcolor="#e581395a"] ;
44 -> 45 ;
46 [label="mse = 0.0\nsamples = 1\nvalue = 2.67", fillcolor="#e5813959"] ;
45 -> 46 ;
47 [label="mse = 0.0\nsamples = 1\nvalue = 2.69", fillcolor="#e581395b"] ;
45 -> 47 ;
48 [label="mse = 0.0\nsamples = 1\nvalue = 2.63", fillcolor="#e5813954"] ;
44 -> 48 ;
49 [label="MCARI_OSAVI_RE <= 0.223\nmse = 0.009\nsamples = 7\nvalue = 2.688", fillcolor="#e581395b"] ;
33 -> 49 ;
50 [label="mse = 0.0\nsamples = 1\nvalue = 2.92", fillcolor="#e5813977"] ;
49 -> 50 ;
51 [label="MCARI_OSAVI <= 0.063\nmse = 0.005\nsamples = 6\nvalue = 2.668", fillcolor="#e5813958"] ;
49 -> 51 ;
52 [label="NDRE <= 0.344\nmse = 0.002\nsamples = 5\nvalue = 2.694", fillcolor="#e581395c"] ;
51 -> 52 ;
53 [label="NDRE <= 0.274\nmse = 0.0\nsamples = 4\nvalue = 2.666", fillcolor="#e5813958"] ;
52 -> 53 ;
54 [label="CCCI_simpl <= 0.802\nmse = 0.0\nsamples = 2\nvalue = 2.682", fillcolor="#e581395a"] ;
53 -> 54 ;
55 [label="mse = 0.0\nsamples = 1\nvalue = 2.69", fillcolor="#e581395b"] ;
54 -> 55 ;
56 [label="mse = 0.0\nsamples = 1\nvalue = 2.68", fillcolor="#e581395a"] ;
54 -> 56 ;
57 [label="NDVI <= 0.828\nmse = 0.0\nsamples = 2\nvalue = 2.643", fillcolor="#e5813955"] ;
53 -> 57 ;
58 [label="mse = 0.0\nsamples = 1\nvalue = 2.64", fillcolor="#e5813955"] ;
57 -> 58 ;
59 [label="mse = 0.0\nsamples = 1\nvalue = 2.65", fillcolor="#e5813956"] ;
57 -> 59 ;
60 [label="mse = 0.0\nsamples = 1\nvalue = 2.76", fillcolor="#e5813964"] ;
52 -> 60 ;
61 [label="mse = 0.0\nsamples = 1\nvalue = 2.54", fillcolor="#e5813949"] ;
51 -> 61 ;
62 [label="MCARI_OSAVI <= 0.006\nmse = 0.002\nsamples = 4\nvalue = 2.45", fillcolor="#e581393e"] ;
32 -> 62 ;
63 [label="mse = 0.0\nsamples = 1\nvalue = 2.36", fillcolor="#e5813933"] ;
62 -> 63 ;
64 [label="GNDVI <= 0.675\nmse = 0.001\nsamples = 3\nvalue = 2.472", fillcolor="#e5813941"] ;
62 -> 64 ;
65 [label="mse = 0.0\nsamples = 1\nvalue = 2.45", fillcolor="#e581393e"] ;
64 -> 65 ;
66 [label="TCARI_OSAVI_RE <= 1.749\nmse = 0.0\nsamples = 2\nvalue = 2.495", fillcolor="#e5813943"] ;
64 -> 66 ;
67 [label="mse = 0.0\nsamples = 1\nvalue = 2.5", fillcolor="#e5813944"] ;
66 -> 67 ;
68 [label="mse = 0.0\nsamples = 1\nvalue = 2.49", fillcolor="#e5813943"] ;
66 -> 68 ;
69 [label="mse = -0.0\nsamples = 1\nvalue = 1.98", fillcolor="#e5813905"] ;
27 -> 69 ;
70 [label="TCARI_OSAVI_RE <= 5.337\nmse = 0.009\nsamples = 4\nvalue = 2.128", fillcolor="#e5813917"] ;
12 -> 70 ;
71 [label="mse = 0.0\nsamples = 1\nvalue = 1.94", fillcolor="#e5813900"] ;
70 -> 71 ;
72 [label="MCARI_OSAVI_RE <= 0.679\nmse = 0.0\nsamples = 3\nvalue = 2.175", fillcolor="#e581391d"] ;
70 -> 72 ;
73 [label="mse = 0.0\nsamples = 1\nvalue = 2.17", fillcolor="#e581391c"] ;
72 -> 73 ;
74 [label="mse = 0.0\nsamples = 2\nvalue = 2.18", fillcolor="#e581391d"] ;
72 -> 74 ;
75 [label="NDRE <= 0.25\nmse = 0.056\nsamples = 5\nvalue = 3.071", fillcolor="#e5813989"] ;
11 -> 75 ;
76 [label="CI_green <= 6.192\nmse = 0.012\nsamples = 3\nvalue = 2.918", fillcolor="#e5813977"] ;
75 -> 76 ;
77 [label="mse = 0.0\nsamples = 1\nvalue = 2.68", fillcolor="#e581395a"] ;
76 -> 77 ;
78 [label="RVI <= 10.785\nmse = 0.0\nsamples = 2\nvalue = 2.966", fillcolor="#e581397d"] ;
76 -> 78 ;
79 [label="mse = 0.0\nsamples = 1\nvalue = 2.99", fillcolor="#e5813980"] ;
78 -> 79 ;
80 [label="mse = -0.0\nsamples = 1\nvalue = 2.95", fillcolor="#e581397b"] ;
78 -> 80 ;
81 [label="TCARI_OSAVI_RE <= 8.148\nmse = 0.004\nsamples = 2\nvalue = 3.377", fillcolor="#e58139ae"] ;
75 -> 81 ;
82 [label="mse = 0.0\nsamples = 1\nvalue = 3.33", fillcolor="#e58139a9"] ;
81 -> 82 ;
83 [label="mse = -0.0\nsamples = 1\nvalue = 3.47", fillcolor="#e58139ba"] ;
81 -> 83 ;
84 [label="CIred_edge <= 0.213\nmse = 0.069\nsamples = 10\nvalue = 3.617", fillcolor="#e58139cc"] ;
0 -> 84 [labeldistance=2.5, labelangle=-45, headlabel="False"] ;
85 [label="RVI <= 1.552\nmse = 0.014\nsamples = 5\nvalue = 3.817", fillcolor="#e58139e4"] ;
84 -> 85 ;
86 [label="mse = 0.0\nsamples = 1\nvalue = 4.04", fillcolor="#e58139ff"] ;
85 -> 86 ;
87 [label="TCARI_OSAVI <= 1.367\nmse = 0.002\nsamples = 4\nvalue = 3.761", fillcolor="#e58139dd"] ;
85 -> 87 ;
88 [label="RVI <= 1.588\nmse = 0.0\nsamples = 2\nvalue = 3.84", fillcolor="#e58139e7"] ;
87 -> 88 ;
89 [label="mse = 0.0\nsamples = 1\nvalue = 3.86", fillcolor="#e58139e9"] ;
88 -> 89 ;
90 [label="mse = -0.0\nsamples = 1\nvalue = 3.82", fillcolor="#e58139e4"] ;
88 -> 90 ;
91 [label="NDRE <= 0.089\nmse = 0.0\nsamples = 2\nvalue = 3.735", fillcolor="#e58139da"] ;
87 -> 91 ;
92 [label="mse = 0.0\nsamples = 1\nvalue = 3.75", fillcolor="#e58139dc"] ;
91 -> 92 ;
93 [label="mse = -0.0\nsamples = 1\nvalue = 3.72", fillcolor="#e58139d8"] ;
91 -> 93 ;
94 [label="MCARI_OSAVI <= 0.251\nmse = 0.009\nsamples = 5\nvalue = 3.331", fillcolor="#e58139a9"] ;
84 -> 94 ;
95 [label="CIred_edge <= 0.602\nmse = 0.01\nsamples = 3\nvalue = 3.413", fillcolor="#e58139b3"] ;
94 -> 95 ;
96 [label="FECHA_09/11/17 <= 0.5\nmse = 0.0\nsamples = 2\nvalue = 3.485", fillcolor="#e58139bc"] ;
95 -> 96 ;
97 [label="mse = 0.0\nsamples = 1\nvalue = 3.48", fillcolor="#e58139bb"] ;
96 -> 97 ;
98 [label="mse = -0.0\nsamples = 1\nvalue = 3.49", fillcolor="#e58139bc"] ;
96 -> 98 ;
99 [label="mse = 0.0\nsamples = 1\nvalue = 3.27", fillcolor="#e58139a2"] ;
95 -> 99 ;
100 [label="CIred_edge <= 0.328\nmse = 0.0\nsamples = 2\nvalue = 3.27", fillcolor="#e58139a1"] ;
94 -> 100 ;
101 [label="mse = 0.0\nsamples = 1\nvalue = 3.26", fillcolor="#e58139a0"] ;
100 -> 101 ;
102 [label="mse = 0.0\nsamples = 1\nvalue = 3.28", fillcolor="#e58139a3"] ;
100 -> 102 ;
}